digraph Tree {
node [shape=box] ;
0 [label="X[3] <= 0.5\ngini = 0.42\nsamples = 1000\nvalue = [700, 300]"] ;
1 [label="X[58] <= 22.5\ngini = 0.4869\nsamples = 606\nvalue = [352, 254]"] ;
0 -> 1 [labeldistance=2.5, labelangle=45, headlabel="True"] ;
2 [label="X[5] <= 0.5\ngini = 0.4438\nsamples = 349\nvalue = [233, 116]"] ;
1 -> 2 ;
3 [label="X[58] <= 11.5\ngini = 0.4271\nsamples = 330\nvalue = [228, 102]"] ;
2 -> 3 ;
4 [label="X[59] <= 10931.5\ngini = 0.2891\nsamples = 97\nvalue = [80, 17]"] ;
3 -> 4 ;
5 [label="gini = 0.2659\nsamples = 95\nvalue = [80, 15]"] ;
4 -> 5 ;
6 [label="gini = 0.0\nsamples = 2\nvalue = [0, 2]"] ;
4 -> 6 ;
7 [label="X[59] <= 1285.5\ngini = 0.4634\nsamples = 233\nvalue = [148, 85]"] ;
3 -> 7 ;
8 [label="gini = 0.4949\nsamples = 69\nvalue = [31, 38]"] ;
7 -> 8 ;
9 [label="gini = 0.4089\nsamples = 164\nvalue = [117, 47]"] ;
7 -> 9 ;
10 [label="X[13] <= 0.5\ngini = 0.3878\nsamples = 19\nvalue = [5, 14]"] ;
2 -> 10 ;
11 [label="X[59] <= 386.0\ngini = 0.142\nsamples = 13\nvalue = [1, 12]"] ;
10 -> 11 ;
12 [label="gini = 0.0\nsamples = 1\nvalue = [1, 0]"] ;
11 -> 12 ;
13 [label="gini = 0.0\nsamples = 12\nvalue = [0, 12]"] ;
11 -> 13 ;
14 [label="X[0] <= 0.5\ngini = 0.4444\nsamples = 6\nvalue = [4, 2]"] ;
10 -> 14 ;
15 [label="gini = 0.0\nsamples = 3\nvalue = [3, 0]"] ;
14 -> 15 ;
16 [label="gini = 0.4444\nsamples = 3\nvalue = [1, 2]"] ;
14 -> 16 ;
17 [label="X[19] <= 0.5\ngini = 0.4973\nsamples = 257\nvalue = [119, 138]"] ;
1 -> 17 ;
18 [label="X[6] <= 0.5\ngini = 0.4722\nsamples = 89\nvalue = [55, 34]"] ;
17 -> 18 ;
19 [label="X[52] <= 0.5\ngini = 0.3585\nsamples = 47\nvalue = [36, 11]"] ;
18 -> 19 ;
20 [label="gini = 0.4717\nsamples = 21\nvalue = [13, 8]"] ;
19 -> 20 ;
21 [label="gini = 0.2041\nsamples = 26\nvalue = [23, 3]"] ;
19 -> 21 ;
22 [label="X[59] <= 5488.0\ngini = 0.4955\nsamples = 42\nvalue = [19, 23]"] ;
18 -> 22 ;
23 [label="gini = 0.4911\nsamples = 30\nvalue = [17, 13]"] ;
22 -> 23 ;
24 [label="gini = 0.2778\nsamples = 12\nvalue = [2, 10]"] ;
22 -> 24 ;
25 [label="X[58] <= 43.5\ngini = 0.4717\nsamples = 168\nvalue = [64, 104]"] ;
17 -> 25 ;
26 [label="X[9] <= 0.5\ngini = 0.4947\nsamples = 136\nvalue = [61, 75]"] ;
25 -> 26 ;
27 [label="gini = 0.499\nsamples = 111\nvalue = [58, 53]"] ;
26 -> 27 ;
28 [label="gini = 0.2112\nsamples = 25\nvalue = [3, 22]"] ;
26 -> 28 ;
29 [label="X[36] <= 0.5\ngini = 0.1699\nsamples = 32\nvalue = [3, 29]"] ;
25 -> 29 ;
30 [label="gini = 0.0666\nsamples = 29\nvalue = [1, 28]"] ;
29 -> 30 ;
31 [label="gini = 0.4444\nsamples = 3\nvalue = [2, 1]"] ;
29 -> 31 ;
32 [label="X[46] <= 0.5\ngini = 0.2062\nsamples = 394\nvalue = [348, 46]"] ;
0 -> 32 [labeldistance=2.5, labelangle=-45, headlabel="False"] ;
33 [label="X[37] <= 0.5\ngini = 0.4175\nsamples = 64\nvalue = [45, 19]"] ;
32 -> 33 ;
34 [label="X[59] <= 1000.5\ngini = 0.3068\nsamples = 37\nvalue = [30, 7]"] ;
33 -> 34 ;
35 [label="X[61] <= 32.5\ngini = 0.4444\nsamples = 3\nvalue = [1, 2]"] ;
34 -> 35 ;
36 [label="gini = 0.0\nsamples = 1\nvalue = [1, 0]"] ;
35 -> 36 ;
37 [label="gini = 0.0\nsamples = 2\nvalue = [0, 2]"] ;
35 -> 37 ;
38 [label="X[59] <= 4907.0\ngini = 0.2509\nsamples = 34\nvalue = [29, 5]"] ;
34 -> 38 ;
39 [label="gini = 0.0799\nsamples = 24\nvalue = [23, 1]"] ;
38 -> 39 ;
40 [label="gini = 0.48\nsamples = 10\nvalue = [6, 4]"] ;
38 -> 40 ;
41 [label="X[18] <= 0.5\ngini = 0.4938\nsamples = 27\nvalue = [15, 12]"] ;
33 -> 41 ;
42 [label="X[61] <= 25.5\ngini = 0.42\nsamples = 20\nvalue = [14, 6]"] ;
41 -> 42 ;
43 [label="gini = 0.0\nsamples = 2\nvalue = [0, 2]"] ;
42 -> 43 ;
44 [label="gini = 0.3457\nsamples = 18\nvalue = [14, 4]"] ;
42 -> 44 ;
45 [label="X[28] <= 0.5\ngini = 0.2449\nsamples = 7\nvalue = [1, 6]"] ;
41 -> 45 ;
46 [label="gini = 0.0\nsamples = 6\nvalue = [0, 6]"] ;
45 -> 46 ;
47 [label="gini = 0.0\nsamples = 1\nvalue = [1, 0]"] ;
45 -> 47 ;
48 [label="X[61] <= 30.5\ngini = 0.1502\nsamples = 330\nvalue = [303, 27]"] ;
32 -> 48 ;
49 [label="X[59] <= 6465.5\ngini = 0.2622\nsamples = 116\nvalue = [98, 18]"] ;
48 -> 49 ;
50 [label="X[34] <= 0.5\ngini = 0.2152\nsamples = 106\nvalue = [93, 13]"] ;
49 -> 50 ;
51 [label="gini = 0.1908\nsamples = 103\nvalue = [92, 11]"] ;
50 -> 51 ;
52 [label="gini = 0.4444\nsamples = 3\nvalue = [1, 2]"] ;
50 -> 52 ;
53 [label="X[13] <= 0.5\ngini = 0.5\nsamples = 10\nvalue = [5, 5]"] ;
49 -> 53 ;
54 [label="gini = 0.4082\nsamples = 7\nvalue = [2, 5]"] ;
53 -> 54 ;
55 [label="gini = 0.0\nsamples = 3\nvalue = [3, 0]"] ;
53 -> 55 ;
56 [label="X[8] <= 0.5\ngini = 0.0806\nsamples = 214\nvalue = [205, 9]"] ;
48 -> 56 ;
57 [label="X[62] <= 1.5\ngini = 0.1443\nsamples = 115\nvalue = [106, 9]"] ;
56 -> 57 ;
58 [label="gini = 0.0651\nsamples = 89\nvalue = [86, 3]"] ;
57 -> 58 ;
59 [label="gini = 0.355\nsamples = 26\nvalue = [20, 6]"] ;
57 -> 59 ;
60 [label="gini = 0.0\nsamples = 99\nvalue = [99, 0]"] ;
56 -> 60 ;
}