digraph Tree {
node [shape=box] ;
0 [label="X[3] <= 0.5\ngini = 0.42\nsamples = 1000\nvalue = [700, 300]"] ;
1 [label="X[58] <= 22.5\ngini = 0.4869\nsamples = 606\nvalue = [352, 254]"] ;
0 -> 1 [labeldistance=2.5, labelangle=45, headlabel="True"] ;
2 [label="X[5] <= 0.5\ngini = 0.4438\nsamples = 349\nvalue = [233, 116]"] ;
1 -> 2 ;
3 [label="X[58] <= 11.5\ngini = 0.4271\nsamples = 330\nvalue = [228, 102]"] ;
2 -> 3 ;
4 [label="X[59] <= 10931.5\ngini = 0.2891\nsamples = 97\nvalue = [80, 17]"] ;
3 -> 4 ;
5 [label="X[61] <= 34.5\ngini = 0.2659\nsamples = 95\nvalue = [80, 15]"] ;
4 -> 5 ;
6 [label="X[16] <= 0.5\ngini = 0.4082\nsamples = 42\nvalue = [30, 12]"] ;
5 -> 6 ;
7 [label="X[58] <= 7.5\ngini = 0.355\nsamples = 39\nvalue = [30, 9]"] ;
6 -> 7 ;
8 [label="gini = 0.0\nsamples = 14\nvalue = [14, 0]"] ;
7 -> 8 ;
9 [label="X[40] <= 0.5\ngini = 0.4608\nsamples = 25\nvalue = [16, 9]"] ;
7 -> 9 ;
10 [label="X[58] <= 9.5\ngini = 0.4861\nsamples = 12\nvalue = [5, 7]"] ;
9 -> 10 ;
11 [label="X[23] <= 0.5\ngini = 0.3457\nsamples = 9\nvalue = [2, 7]"] ;
10 -> 11 ;
12 [label="X[28] <= 0.5\ngini = 0.2188\nsamples = 8\nvalue = [1, 7]"] ;
11 -> 12 ;
13 [label="gini = 0.0\nsamples = 7\nvalue = [0, 7]"] ;
12 -> 13 ;
14 [label="gini = 0.0\nsamples = 1\nvalue = [1, 0]"] ;
12 -> 14 ;
15 [label="gini = 0.0\nsamples = 1\nvalue = [1, 0]"] ;
11 -> 15 ;
16 [label="gini = 0.0\nsamples = 3\nvalue = [3, 0]"] ;
10 -> 16 ;
17 [label="X[2] <= 0.5\ngini = 0.2604\nsamples = 13\nvalue = [11, 2]"] ;
9 -> 17 ;
18 [label="X[58] <= 8.5\ngini = 0.1528\nsamples = 12\nvalue = [11, 1]"] ;
17 -> 18 ;
19 [label="X[37] <= 0.5\ngini = 0.4444\nsamples = 3\nvalue = [2, 1]"] ;
18 -> 19 ;
20 [label="gini = 0.0\nsamples = 1\nvalue = [0, 1]"] ;
19 -> 20 ;
21 [label="gini = 0.0\nsamples = 2\nvalue = [2, 0]"] ;
19 -> 21 ;
22 [label="gini = 0.0\nsamples = 9\nvalue = [9, 0]"] ;
18 -> 22 ;
23 [label="gini = 0.0\nsamples = 1\nvalue = [0, 1]"] ;
17 -> 23 ;
24 [label="gini = 0.0\nsamples = 3\nvalue = [0, 3]"] ;
6 -> 24 ;
25 [label="X[29] <= 0.5\ngini = 0.1068\nsamples = 53\nvalue = [50, 3]"] ;
5 -> 25 ;
26 [label="X[7] <= 0.5\ngini = 0.0754\nsamples = 51\nvalue = [49, 2]"] ;
25 -> 26 ;
27 [label="X[20] <= 0.5\ngini = 0.0408\nsamples = 48\nvalue = [47, 1]"] ;
26 -> 27 ;
28 [label="gini = 0.0\nsamples = 45\nvalue = [45, 0]"] ;
27 -> 28 ;
29 [label="X[43] <= 0.5\ngini = 0.4444\nsamples = 3\nvalue = [2, 1]"] ;
27 -> 29 ;
30 [label="gini = 0.0\nsamples = 2\nvalue = [2, 0]"] ;
29 -> 30 ;
31 [label="gini = 0.0\nsamples = 1\nvalue = [0, 1]"] ;
29 -> 31 ;
32 [label="X[9] <= 0.5\ngini = 0.4444\nsamples = 3\nvalue = [2, 1]"] ;
26 -> 32 ;
33 [label="gini = 0.0\nsamples = 2\nvalue = [2, 0]"] ;
32 -> 33 ;
34 [label="gini = 0.0\nsamples = 1\nvalue = [0, 1]"] ;
32 -> 34 ;
35 [label="X[55] <= 0.5\ngini = 0.5\nsamples = 2\nvalue = [1, 1]"] ;
25 -> 35 ;
36 [label="gini = 0.0\nsamples = 1\nvalue = [1, 0]"] ;
35 -> 36 ;
37 [label="gini = 0.0\nsamples = 1\nvalue = [0, 1]"] ;
35 -> 37 ;
38 [label="gini = 0.0\nsamples = 2\nvalue = [0, 2]"] ;
4 -> 38 ;
39 [label="X[59] <= 1285.5\ngini = 0.4634\nsamples = 233\nvalue = [148, 85]"] ;
3 -> 39 ;
40 [label="X[42] <= 0.5\ngini = 0.4949\nsamples = 69\nvalue = [31, 38]"] ;
39 -> 40 ;
41 [label="X[33] <= 0.5\ngini = 0.4906\nsamples = 51\nvalue = [29, 22]"] ;
40 -> 41 ;
42 [label="X[9] <= 0.5\ngini = 0.18\nsamples = 10\nvalue = [9, 1]"] ;
41 -> 42 ;
43 [label="gini = 0.0\nsamples = 9\nvalue = [9, 0]"] ;
42 -> 43 ;
44 [label="gini = 0.0\nsamples = 1\nvalue = [0, 1]"] ;
42 -> 44 ;
45 [label="X[12] <= 0.5\ngini = 0.4997\nsamples = 41\nvalue = [20, 21]"] ;
41 -> 45 ;
46 [label="X[59] <= 622.5\ngini = 0.4861\nsamples = 36\nvalue = [15, 21]"] ;
45 -> 46 ;
47 [label="gini = 0.0\nsamples = 3\nvalue = [3, 0]"] ;
46 -> 47 ;
48 [label="X[26] <= 0.5\ngini = 0.4628\nsamples = 33\nvalue = [12, 21]"] ;
46 -> 48 ;
49 [label="X[1] <= 0.5\ngini = 0.3628\nsamples = 21\nvalue = [5, 16]"] ;
48 -> 49 ;
50 [label="X[56] <= 0.5\ngini = 0.1327\nsamples = 14\nvalue = [1, 13]"] ;
49 -> 50 ;
51 [label="gini = 0.0\nsamples = 1\nvalue = [1, 0]"] ;
50 -> 51 ;
52 [label="gini = 0.0\nsamples = 13\nvalue = [0, 13]"] ;
50 -> 52 ;
53 [label="X[27] <= 0.5\ngini = 0.4898\nsamples = 7\nvalue = [4, 3]"] ;
49 -> 53 ;
54 [label="X[17] <= 0.5\ngini = 0.375\nsamples = 4\nvalue = [1, 3]"] ;
53 -> 54 ;
55 [label="gini = 0.0\nsamples = 3\nvalue = [0, 3]"] ;
54 -> 55 ;
56 [label="gini = 0.0\nsamples = 1\nvalue = [1, 0]"] ;
54 -> 56 ;
57 [label="gini = 0.0\nsamples = 3\nvalue = [3, 0]"] ;
53 -> 57 ;
58 [label="X[61] <= 23.5\ngini = 0.4861\nsamples = 12\nvalue = [7, 5]"] ;
48 -> 58 ;
59 [label="gini = 0.0\nsamples = 4\nvalue = [4, 0]"] ;
58 -> 59 ;
60 [label="X[59] <= 733.5\ngini = 0.4688\nsamples = 8\nvalue = [3, 5]"] ;
58 -> 60 ;
61 [label="gini = 0.0\nsamples = 1\nvalue = [1, 0]"] ;
60 -> 61 ;
62 [label="X[16] <= 0.5\ngini = 0.4082\nsamples = 7\nvalue = [2, 5]"] ;
60 -> 62 ;
63 [label="X[32] <= 0.5\ngini = 0.2778\nsamples = 6\nvalue = [1, 5]"] ;
62 -> 63 ;
64 [label="gini = 0.0\nsamples = 4\nvalue = [0, 4]"] ;
63 -> 64 ;
65 [label="X[58] <= 15.0\ngini = 0.5\nsamples = 2\nvalue = [1, 1]"] ;
63 -> 65 ;
66 [label="gini = 0.0\nsamples = 1\nvalue = [1, 0]"] ;
65 -> 66 ;
67 [label="gini = 0.0\nsamples = 1\nvalue = [0, 1]"] ;
65 -> 67 ;
68 [label="gini = 0.0\nsamples = 1\nvalue = [1, 0]"] ;
62 -> 68 ;
69 [label="gini = 0.0\nsamples = 5\nvalue = [5, 0]"] ;
45 -> 69 ;
70 [label="X[49] <= 0.5\ngini = 0.1975\nsamples = 18\nvalue = [2, 16]"] ;
40 -> 70 ;
71 [label="X[29] <= 0.5\ngini = 0.1107\nsamples = 17\nvalue = [1, 16]"] ;
70 -> 71 ;
72 [label="gini = 0.0\nsamples = 16\nvalue = [0, 16]"] ;
71 -> 72 ;
73 [label="gini = 0.0\nsamples = 1\nvalue = [1, 0]"] ;
71 -> 73 ;
74 [label="gini = 0.0\nsamples = 1\nvalue = [1, 0]"] ;
70 -> 74 ;
75 [label="X[27] <= 0.5\ngini = 0.4089\nsamples = 164\nvalue = [117, 47]"] ;
39 -> 75 ;
76 [label="X[48] <= 0.5\ngini = 0.438\nsamples = 142\nvalue = [96, 46]"] ;
75 -> 76 ;
77 [label="X[4] <= 0.5\ngini = 0.4998\nsamples = 45\nvalue = [23, 22]"] ;
76 -> 77 ;
78 [label="X[58] <= 15.5\ngini = 0.4926\nsamples = 41\nvalue = [23, 18]"] ;
77 -> 78 ;
79 [label="X[55] <= 0.5\ngini = 0.3967\nsamples = 22\nvalue = [16, 6]"] ;
78 -> 79 ;
80 [label="X[59] <= 1296.0\ngini = 0.2311\nsamples = 15\nvalue = [13, 2]"] ;
79 -> 80 ;
81 [label="gini = 0.0\nsamples = 1\nvalue = [0, 1]"] ;
80 -> 81 ;
82 [label="X[32] <= 0.5\ngini = 0.1327\nsamples = 14\nvalue = [13, 1]"] ;
80 -> 82 ;
83 [label="gini = 0.0\nsamples = 12\nvalue = [12, 0]"] ;
82 -> 83 ;
84 [label="X[26] <= 0.5\ngini = 0.5\nsamples = 2\nvalue = [1, 1]"] ;
82 -> 84 ;
85 [label="gini = 0.0\nsamples = 1\nvalue = [0, 1]"] ;
84 -> 85 ;
86 [label="gini = 0.0\nsamples = 1\nvalue = [1, 0]"] ;
84 -> 86 ;
87 [label="X[42] <= 0.5\ngini = 0.4898\nsamples = 7\nvalue = [3, 4]"] ;
79 -> 87 ;
88 [label="gini = 0.0\nsamples = 3\nvalue = [0, 3]"] ;
87 -> 88 ;
89 [label="X[19] <= 0.5\ngini = 0.375\nsamples = 4\nvalue = [3, 1]"] ;
87 -> 89 ;
90 [label="gini = 0.0\nsamples = 1\nvalue = [0, 1]"] ;
89 -> 90 ;
91 [label="gini = 0.0\nsamples = 3\nvalue = [3, 0]"] ;
89 -> 91 ;
92 [label="X[59] <= 2773.0\ngini = 0.4654\nsamples = 19\nvalue = [7, 12]"] ;
78 -> 92 ;
93 [label="X[55] <= 0.5\ngini = 0.2975\nsamples = 11\nvalue = [2, 9]"] ;
92 -> 93 ;
94 [label="gini = 0.0\nsamples = 8\nvalue = [0, 8]"] ;
93 -> 94 ;
95 [label="X[60] <= 2.5\ngini = 0.4444\nsamples = 3\nvalue = [2, 1]"] ;
93 -> 95 ;
96 [label="gini = 0.0\nsamples = 1\nvalue = [0, 1]"] ;
95 -> 96 ;
97 [label="gini = 0.0\nsamples = 2\nvalue = [2, 0]"] ;
95 -> 97 ;
98 [label="X[61] <= 29.0\ngini = 0.4688\nsamples = 8\nvalue = [5, 3]"] ;
92 -> 98 ;
99 [label="gini = 0.0\nsamples = 4\nvalue = [4, 0]"] ;
98 -> 99 ;
100 [label="X[6] <= 0.5\ngini = 0.375\nsamples = 4\nvalue = [1, 3]"] ;
98 -> 100 ;
101 [label="X[49] <= 0.5\ngini = 0.5\nsamples = 2\nvalue = [1, 1]"] ;
100 -> 101 ;
102 [label="gini = 0.0\nsamples = 1\nvalue = [0, 1]"] ;
101 -> 102 ;
103 [label="gini = 0.0\nsamples = 1\nvalue = [1, 0]"] ;
101 -> 103 ;
104 [label="gini = 0.0\nsamples = 2\nvalue = [0, 2]"] ;
100 -> 104 ;
105 [label="gini = 0.0\nsamples = 4\nvalue = [0, 4]"] ;
77 -> 105 ;
106 [label="X[39] <= 0.5\ngini = 0.3724\nsamples = 97\nvalue = [73, 24]"] ;
76 -> 106 ;
107 [label="X[61] <= 57.0\ngini = 0.4348\nsamples = 72\nvalue = [49, 23]"] ;
106 -> 107 ;
108 [label="X[61] <= 26.5\ngini = 0.42\nsamples = 70\nvalue = [49, 21]"] ;
107 -> 108 ;
109 [label="X[58] <= 16.5\ngini = 0.4989\nsamples = 21\nvalue = [11, 10]"] ;
108 -> 109 ;
110 [label="X[60] <= 2.5\ngini = 0.4082\nsamples = 14\nvalue = [10, 4]"] ;
109 -> 110 ;
111 [label="X[60] <= 1.5\ngini = 0.4444\nsamples = 6\nvalue = [2, 4]"] ;
110 -> 111 ;
112 [label="X[13] <= 0.5\ngini = 0.4444\nsamples = 3\nvalue = [2, 1]"] ;
111 -> 112 ;
113 [label="gini = 0.0\nsamples = 1\nvalue = [0, 1]"] ;
112 -> 113 ;
114 [label="gini = 0.0\nsamples = 2\nvalue = [2, 0]"] ;
112 -> 114 ;
115 [label="gini = 0.0\nsamples = 3\nvalue = [0, 3]"] ;
111 -> 115 ;
116 [label="gini = 0.0\nsamples = 8\nvalue = [8, 0]"] ;
110 -> 116 ;
117 [label="X[28] <= 0.5\ngini = 0.2449\nsamples = 7\nvalue = [1, 6]"] ;
109 -> 117 ;
118 [label="gini = 0.0\nsamples = 6\nvalue = [0, 6]"] ;
117 -> 118 ;
119 [label="gini = 0.0\nsamples = 1\nvalue = [1, 0]"] ;
117 -> 119 ;
120 [label="X[59] <= 1917.5\ngini = 0.3482\nsamples = 49\nvalue = [38, 11]"] ;
108 -> 120 ;
121 [label="gini = 0.0\nsamples = 15\nvalue = [15, 0]"] ;
120 -> 121 ;
122 [label="X[40] <= 0.5\ngini = 0.4377\nsamples = 34\nvalue = [23, 11]"] ;
120 -> 122 ;
123 [label="X[59] <= 3805.0\ngini = 0.3457\nsamples = 27\nvalue = [21, 6]"] ;
122 -> 123 ;
124 [label="X[4] <= 0.5\ngini = 0.1723\nsamples = 21\nvalue = [19, 2]"] ;
123 -> 124 ;
125 [label="X[59] <= 1931.5\ngini = 0.095\nsamples = 20\nvalue = [19, 1]"] ;
124 -> 125 ;
126 [label="gini = 0.0\nsamples = 1\nvalue = [0, 1]"] ;
125 -> 126 ;
127 [label="gini = 0.0\nsamples = 19\nvalue = [19, 0]"] ;
125 -> 127 ;
128 [label="gini = 0.0\nsamples = 1\nvalue = [0, 1]"] ;
124 -> 128 ;
129 [label="X[59] <= 5081.5\ngini = 0.4444\nsamples = 6\nvalue = [2, 4]"] ;
123 -> 129 ;
130 [label="gini = 0.0\nsamples = 3\nvalue = [0, 3]"] ;
129 -> 130 ;
131 [label="X[23] <= 0.5\ngini = 0.4444\nsamples = 3\nvalue = [2, 1]"] ;
129 -> 131 ;
132 [label="gini = 0.0\nsamples = 2\nvalue = [2, 0]"] ;
131 -> 132 ;
133 [label="gini = 0.0\nsamples = 1\nvalue = [0, 1]"] ;
131 -> 133 ;
134 [label="X[44] <= 0.5\ngini = 0.4082\nsamples = 7\nvalue = [2, 5]"] ;
122 -> 134 ;
135 [label="gini = 0.0\nsamples = 5\nvalue = [0, 5]"] ;
134 -> 135 ;
136 [label="gini = 0.0\nsamples = 2\nvalue = [2, 0]"] ;
134 -> 136 ;
137 [label="gini = 0.0\nsamples = 2\nvalue = [0, 2]"] ;
107 -> 137 ;
138 [label="X[59] <= 8176.0\ngini = 0.0768\nsamples = 25\nvalue = [24, 1]"] ;
106 -> 138 ;
139 [label="gini = 0.0\nsamples = 24\nvalue = [24, 0]"] ;
138 -> 139 ;
140 [label="gini = 0.0\nsamples = 1\nvalue = [0, 1]"] ;
138 -> 140 ;
141 [label="X[59] <= 1398.0\ngini = 0.0868\nsamples = 22\nvalue = [21, 1]"] ;
75 -> 141 ;
142 [label="gini = 0.0\nsamples = 1\nvalue = [0, 1]"] ;
141 -> 142 ;
143 [label="gini = 0.0\nsamples = 21\nvalue = [21, 0]"] ;
141 -> 143 ;
144 [label="X[13] <= 0.5\ngini = 0.3878\nsamples = 19\nvalue = [5, 14]"] ;
2 -> 144 ;
145 [label="X[59] <= 386.0\ngini = 0.142\nsamples = 13\nvalue = [1, 12]"] ;
144 -> 145 ;
146 [label="gini = 0.0\nsamples = 1\nvalue = [1, 0]"] ;
145 -> 146 ;
147 [label="gini = 0.0\nsamples = 12\nvalue = [0, 12]"] ;
145 -> 147 ;
148 [label="X[61] <= 32.5\ngini = 0.4444\nsamples = 6\nvalue = [4, 2]"] ;
144 -> 148 ;
149 [label="X[31] <= 0.5\ngini = 0.4444\nsamples = 3\nvalue = [1, 2]"] ;
148 -> 149 ;
150 [label="gini = 0.0\nsamples = 2\nvalue = [0, 2]"] ;
149 -> 150 ;
151 [label="gini = 0.0\nsamples = 1\nvalue = [1, 0]"] ;
149 -> 151 ;
152 [label="gini = 0.0\nsamples = 3\nvalue = [3, 0]"] ;
148 -> 152 ;
153 [label="X[19] <= 0.5\ngini = 0.4973\nsamples = 257\nvalue = [119, 138]"] ;
1 -> 153 ;
154 [label="X[6] <= 0.5\ngini = 0.4722\nsamples = 89\nvalue = [55, 34]"] ;
153 -> 154 ;
155 [label="X[52] <= 0.5\ngini = 0.3585\nsamples = 47\nvalue = [36, 11]"] ;
154 -> 155 ;
156 [label="X[59] <= 4496.0\ngini = 0.4717\nsamples = 21\nvalue = [13, 8]"] ;
155 -> 156 ;
157 [label="X[61] <= 44.5\ngini = 0.48\nsamples = 10\nvalue = [4, 6]"] ;
156 -> 157 ;
158 [label="X[44] <= 0.5\ngini = 0.375\nsamples = 8\nvalue = [2, 6]"] ;
157 -> 158 ;
159 [label="gini = 0.0\nsamples = 5\nvalue = [0, 5]"] ;
158 -> 159 ;
160 [label="X[2] <= 0.5\ngini = 0.4444\nsamples = 3\nvalue = [2, 1]"] ;
158 -> 160 ;
161 [label="gini = 0.0\nsamples = 2\nvalue = [2, 0]"] ;
160 -> 161 ;
162 [label="gini = 0.0\nsamples = 1\nvalue = [0, 1]"] ;
160 -> 162 ;
163 [label="gini = 0.0\nsamples = 2\nvalue = [2, 0]"] ;
157 -> 163 ;
164 [label="X[28] <= 0.5\ngini = 0.2975\nsamples = 11\nvalue = [9, 2]"] ;
156 -> 164 ;
165 [label="gini = 0.0\nsamples = 9\nvalue = [9, 0]"] ;
164 -> 165 ;
166 [label="gini = 0.0\nsamples = 2\nvalue = [0, 2]"] ;
164 -> 166 ;
167 [label="X[59] <= 1245.5\ngini = 0.2041\nsamples = 26\nvalue = [23, 3]"] ;
155 -> 167 ;
168 [label="gini = 0.0\nsamples = 1\nvalue = [0, 1]"] ;
167 -> 168 ;
169 [label="X[21] <= 0.5\ngini = 0.1472\nsamples = 25\nvalue = [23, 2]"] ;
167 -> 169 ;
170 [label="gini = 0.0\nsamples = 20\nvalue = [20, 0]"] ;
169 -> 170 ;
171 [label="X[61] <= 22.5\ngini = 0.48\nsamples = 5\nvalue = [3, 2]"] ;
169 -> 171 ;
172 [label="gini = 0.0\nsamples = 2\nvalue = [2, 0]"] ;
171 -> 172 ;
173 [label="X[4] <= 0.5\ngini = 0.4444\nsamples = 3\nvalue = [1, 2]"] ;
171 -> 173 ;
174 [label="gini = 0.0\nsamples = 2\nvalue = [0, 2]"] ;
173 -> 174 ;
175 [label="gini = 0.0\nsamples = 1\nvalue = [1, 0]"] ;
173 -> 175 ;
176 [label="X[59] <= 5488.0\ngini = 0.4955\nsamples = 42\nvalue = [19, 23]"] ;
154 -> 176 ;
177 [label="X[59] <= 2715.5\ngini = 0.4911\nsamples = 30\nvalue = [17, 13]"] ;
176 -> 177 ;
178 [label="X[0] <= 0.5\ngini = 0.3967\nsamples = 11\nvalue = [3, 8]"] ;
177 -> 178 ;
179 [label="X[58] <= 33.0\ngini = 0.375\nsamples = 4\nvalue = [3, 1]"] ;
178 -> 179 ;
180 [label="gini = 0.0\nsamples = 3\nvalue = [3, 0]"] ;
179 -> 180 ;
181 [label="gini = 0.0\nsamples = 1\nvalue = [0, 1]"] ;
179 -> 181 ;
182 [label="gini = 0.0\nsamples = 7\nvalue = [0, 7]"] ;
178 -> 182 ;
183 [label="X[61] <= 22.5\ngini = 0.3878\nsamples = 19\nvalue = [14, 5]"] ;
177 -> 183 ;
184 [label="gini = 0.0\nsamples = 4\nvalue = [0, 4]"] ;
183 -> 184 ;
185 [label="X[21] <= 0.5\ngini = 0.1244\nsamples = 15\nvalue = [14, 1]"] ;
183 -> 185 ;
186 [label="gini = 0.0\nsamples = 13\nvalue = [13, 0]"] ;
185 -> 186 ;
187 [label="X[52] <= 0.5\ngini = 0.5\nsamples = 2\nvalue = [1, 1]"] ;
185 -> 187 ;
188 [label="gini = 0.0\nsamples = 1\nvalue = [1, 0]"] ;
187 -> 188 ;
189 [label="gini = 0.0\nsamples = 1\nvalue = [0, 1]"] ;
187 -> 189 ;
190 [label="X[56] <= 0.5\ngini = 0.2778\nsamples = 12\nvalue = [2, 10]"] ;
176 -> 190 ;
191 [label="gini = 0.0\nsamples = 1\nvalue = [1, 0]"] ;
190 -> 191 ;
192 [label="X[42] <= 0.5\ngini = 0.1653\nsamples = 11\nvalue = [1, 10]"] ;
190 -> 192 ;
193 [label="gini = 0.0\nsamples = 8\nvalue = [0, 8]"] ;
192 -> 193 ;
194 [label="X[59] <= 7830.5\ngini = 0.4444\nsamples = 3\nvalue = [1, 2]"] ;
192 -> 194 ;
195 [label="gini = 0.0\nsamples = 2\nvalue = [0, 2]"] ;
194 -> 195 ;
196 [label="gini = 0.0\nsamples = 1\nvalue = [1, 0]"] ;
194 -> 196 ;
197 [label="X[58] <= 43.5\ngini = 0.4717\nsamples = 168\nvalue = [64, 104]"] ;
153 -> 197 ;
198 [label="X[9] <= 0.5\ngini = 0.4947\nsamples = 136\nvalue = [61, 75]"] ;
197 -> 198 ;
199 [label="X[59] <= 8015.5\ngini = 0.499\nsamples = 111\nvalue = [58, 53]"] ;
198 -> 199 ;
200 [label="X[10] <= 0.5\ngini = 0.491\nsamples = 97\nvalue = [55, 42]"] ;
199 -> 200 ;
201 [label="X[54] <= 0.5\ngini = 0.4999\nsamples = 83\nvalue = [41, 42]"] ;
200 -> 201 ;
202 [label="X[6] <= 0.5\ngini = 0.4121\nsamples = 31\nvalue = [9, 22]"] ;
201 -> 202 ;
203 [label="X[8] <= 0.5\ngini = 0.2659\nsamples = 19\nvalue = [3, 16]"] ;
202 -> 203 ;
204 [label="gini = 0.0\nsamples = 13\nvalue = [0, 13]"] ;
203 -> 204 ;
205 [label="X[61] <= 37.0\ngini = 0.5\nsamples = 6\nvalue = [3, 3]"] ;
203 -> 205 ;
206 [label="X[49] <= 0.5\ngini = 0.375\nsamples = 4\nvalue = [1, 3]"] ;
205 -> 206 ;
207 [label="gini = 0.0\nsamples = 3\nvalue = [0, 3]"] ;
206 -> 207 ;
208 [label="gini = 0.0\nsamples = 1\nvalue = [1, 0]"] ;
206 -> 208 ;
209 [label="gini = 0.0\nsamples = 2\nvalue = [2, 0]"] ;
205 -> 209 ;
210 [label="X[58] <= 31.5\ngini = 0.5\nsamples = 12\nvalue = [6, 6]"] ;
202 -> 210 ;
211 [label="X[59] <= 2003.0\ngini = 0.4444\nsamples = 9\nvalue = [3, 6]"] ;
210 -> 211 ;
212 [label="gini = 0.0\nsamples = 2\nvalue = [2, 0]"] ;
211 -> 212 ;
213 [label="X[18] <= 0.5\ngini = 0.2449\nsamples = 7\nvalue = [1, 6]"] ;
211 -> 213 ;
214 [label="gini = 0.0\nsamples = 5\nvalue = [0, 5]"] ;
213 -> 214 ;
215 [label="X[59] <= 3221.5\ngini = 0.5\nsamples = 2\nvalue = [1, 1]"] ;
213 -> 215 ;
216 [label="gini = 0.0\nsamples = 1\nvalue = [1, 0]"] ;
215 -> 216 ;
217 [label="gini = 0.0\nsamples = 1\nvalue = [0, 1]"] ;
215 -> 217 ;
218 [label="gini = 0.0\nsamples = 3\nvalue = [3, 0]"] ;
210 -> 218 ;
219 [label="X[5] <= 0.5\ngini = 0.4734\nsamples = 52\nvalue = [32, 20]"] ;
201 -> 219 ;
220 [label="X[59] <= 5275.0\ngini = 0.4444\nsamples = 48\nvalue = [32, 16]"] ;
219 -> 220 ;
221 [label="X[58] <= 33.0\ngini = 0.4759\nsamples = 41\nvalue = [25, 16]"] ;
220 -> 221 ;
222 [label="X[63] <= 1.5\ngini = 0.417\nsamples = 27\nvalue = [19, 8]"] ;
221 -> 222 ;
223 [label="X[25] <= 0.5\ngini = 0.3403\nsamples = 23\nvalue = [18, 5]"] ;
222 -> 223 ;
224 [label="X[61] <= 23.5\ngini = 0.1244\nsamples = 15\nvalue = [14, 1]"] ;
223 -> 224 ;
225 [label="gini = 0.0\nsamples = 1\nvalue = [0, 1]"] ;
224 -> 225 ;
226 [label="gini = 0.0\nsamples = 14\nvalue = [14, 0]"] ;
224 -> 226 ;
227 [label="X[36] <= 0.5\ngini = 0.5\nsamples = 8\nvalue = [4, 4]"] ;
223 -> 227 ;
228 [label="X[2] <= 0.5\ngini = 0.32\nsamples = 5\nvalue = [1, 4]"] ;
227 -> 228 ;
229 [label="gini = 0.0\nsamples = 4\nvalue = [0, 4]"] ;
228 -> 229 ;
230 [label="gini = 0.0\nsamples = 1\nvalue = [1, 0]"] ;
228 -> 230 ;
231 [label="gini = 0.0\nsamples = 3\nvalue = [3, 0]"] ;
227 -> 231 ;
232 [label="X[33] <= 0.5\ngini = 0.375\nsamples = 4\nvalue = [1, 3]"] ;
222 -> 232 ;
233 [label="gini = 0.0\nsamples = 1\nvalue = [1, 0]"] ;
232 -> 233 ;
234 [label="gini = 0.0\nsamples = 3\nvalue = [0, 3]"] ;
232 -> 234 ;
235 [label="X[59] <= 2360.5\ngini = 0.4898\nsamples = 14\nvalue = [6, 8]"] ;
221 -> 235 ;
236 [label="X[29] <= 0.5\ngini = 0.375\nsamples = 4\nvalue = [3, 1]"] ;
235 -> 236 ;
237 [label="gini = 0.0\nsamples = 3\nvalue = [3, 0]"] ;
236 -> 237 ;
238 [label="gini = 0.0\nsamples = 1\nvalue = [0, 1]"] ;
236 -> 238 ;
239 [label="X[33] <= 0.5\ngini = 0.42\nsamples = 10\nvalue = [3, 7]"] ;
235 -> 239 ;
240 [label="X[0] <= 0.5\ngini = 0.4444\nsamples = 3\nvalue = [2, 1]"] ;
239 -> 240 ;
241 [label="gini = 0.0\nsamples = 1\nvalue = [0, 1]"] ;
240 -> 241 ;
242 [label="gini = 0.0\nsamples = 2\nvalue = [2, 0]"] ;
240 -> 242 ;
243 [label="X[59] <= 4341.5\ngini = 0.2449\nsamples = 7\nvalue = [1, 6]"] ;
239 -> 243 ;
244 [label="gini = 0.0\nsamples = 5\nvalue = [0, 5]"] ;
243 -> 244 ;
245 [label="X[27] <= 0.5\ngini = 0.5\nsamples = 2\nvalue = [1, 1]"] ;
243 -> 245 ;
246 [label="gini = 0.0\nsamples = 1\nvalue = [1, 0]"] ;
245 -> 246 ;
247 [label="gini = 0.0\nsamples = 1\nvalue = [0, 1]"] ;
245 -> 247 ;
248 [label="gini = 0.0\nsamples = 7\nvalue = [7, 0]"] ;
220 -> 248 ;
249 [label="gini = 0.0\nsamples = 4\nvalue = [0, 4]"] ;
219 -> 249 ;
250 [label="gini = 0.0\nsamples = 14\nvalue = [14, 0]"] ;
200 -> 250 ;
251 [label="X[24] <= 0.5\ngini = 0.3367\nsamples = 14\nvalue = [3, 11]"] ;
199 -> 251 ;
252 [label="X[62] <= 2.5\ngini = 0.1528\nsamples = 12\nvalue = [1, 11]"] ;
251 -> 252 ;
253 [label="gini = 0.0\nsamples = 11\nvalue = [0, 11]"] ;
252 -> 253 ;
254 [label="gini = 0.0\nsamples = 1\nvalue = [1, 0]"] ;
252 -> 254 ;
255 [label="gini = 0.0\nsamples = 2\nvalue = [2, 0]"] ;
251 -> 255 ;
256 [label="X[60] <= 2.5\ngini = 0.2112\nsamples = 25\nvalue = [3, 22]"] ;
198 -> 256 ;
257 [label="X[61] <= 35.0\ngini = 0.48\nsamples = 5\nvalue = [2, 3]"] ;
256 -> 257 ;
258 [label="gini = 0.0\nsamples = 3\nvalue = [0, 3]"] ;
257 -> 258 ;
259 [label="gini = 0.0\nsamples = 2\nvalue = [2, 0]"] ;
257 -> 259 ;
260 [label="X[59] <= 1204.0\ngini = 0.095\nsamples = 20\nvalue = [1, 19]"] ;
256 -> 260 ;
261 [label="X[36] <= 0.5\ngini = 0.4444\nsamples = 3\nvalue = [1, 2]"] ;
260 -> 261 ;
262 [label="gini = 0.0\nsamples = 2\nvalue = [0, 2]"] ;
261 -> 262 ;
263 [label="gini = 0.0\nsamples = 1\nvalue = [1, 0]"] ;
261 -> 263 ;
264 [label="gini = 0.0\nsamples = 17\nvalue = [0, 17]"] ;
260 -> 264 ;
265 [label="X[36] <= 0.5\ngini = 0.1699\nsamples = 32\nvalue = [3, 29]"] ;
197 -> 265 ;
266 [label="X[38] <= 0.5\ngini = 0.0666\nsamples = 29\nvalue = [1, 28]"] ;
265 -> 266 ;
267 [label="gini = 0.0\nsamples = 26\nvalue = [0, 26]"] ;
266 -> 267 ;
268 [label="X[31] <= 0.5\ngini = 0.4444\nsamples = 3\nvalue = [1, 2]"] ;
266 -> 268 ;
269 [label="gini = 0.0\nsamples = 2\nvalue = [0, 2]"] ;
268 -> 269 ;
270 [label="gini = 0.0\nsamples = 1\nvalue = [1, 0]"] ;
268 -> 270 ;
271 [label="X[62] <= 1.5\ngini = 0.4444\nsamples = 3\nvalue = [2, 1]"] ;
265 -> 271 ;
272 [label="gini = 0.0\nsamples = 2\nvalue = [2, 0]"] ;
271 -> 272 ;
273 [label="gini = 0.0\nsamples = 1\nvalue = [0, 1]"] ;
271 -> 273 ;
274 [label="X[46] <= 0.5\ngini = 0.2062\nsamples = 394\nvalue = [348, 46]"] ;
0 -> 274 [labeldistance=2.5, labelangle=-45, headlabel="False"] ;
275 [label="X[37] <= 0.5\ngini = 0.4175\nsamples = 64\nvalue = [45, 19]"] ;
274 -> 275 ;
276 [label="X[59] <= 1000.5\ngini = 0.3068\nsamples = 37\nvalue = [30, 7]"] ;
275 -> 276 ;
277 [label="X[61] <= 32.5\ngini = 0.4444\nsamples = 3\nvalue = [1, 2]"] ;
276 -> 277 ;
278 [label="gini = 0.0\nsamples = 1\nvalue = [1, 0]"] ;
277 -> 278 ;
279 [label="gini = 0.0\nsamples = 2\nvalue = [0, 2]"] ;
277 -> 279 ;
280 [label="X[59] <= 4907.0\ngini = 0.2509\nsamples = 34\nvalue = [29, 5]"] ;
276 -> 280 ;
281 [label="X[58] <= 33.0\ngini = 0.0799\nsamples = 24\nvalue = [23, 1]"] ;
280 -> 281 ;
282 [label="gini = 0.0\nsamples = 22\nvalue = [22, 0]"] ;
281 -> 282 ;
283 [label="X[55] <= 0.5\ngini = 0.5\nsamples = 2\nvalue = [1, 1]"] ;
281 -> 283 ;
284 [label="gini = 0.0\nsamples = 1\nvalue = [1, 0]"] ;
283 -> 284 ;
285 [label="gini = 0.0\nsamples = 1\nvalue = [0, 1]"] ;
283 -> 285 ;
286 [label="X[31] <= 0.5\ngini = 0.48\nsamples = 10\nvalue = [6, 4]"] ;
280 -> 286 ;
287 [label="gini = 0.0\nsamples = 3\nvalue = [0, 3]"] ;
286 -> 287 ;
288 [label="X[58] <= 21.0\ngini = 0.2449\nsamples = 7\nvalue = [6, 1]"] ;
286 -> 288 ;
289 [label="gini = 0.0\nsamples = 1\nvalue = [0, 1]"] ;
288 -> 289 ;
290 [label="gini = 0.0\nsamples = 6\nvalue = [6, 0]"] ;
288 -> 290 ;
291 [label="X[18] <= 0.5\ngini = 0.4938\nsamples = 27\nvalue = [15, 12]"] ;
275 -> 291 ;
292 [label="X[61] <= 25.5\ngini = 0.42\nsamples = 20\nvalue = [14, 6]"] ;
291 -> 292 ;
293 [label="gini = 0.0\nsamples = 2\nvalue = [0, 2]"] ;
292 -> 293 ;
294 [label="X[52] <= 0.5\ngini = 0.3457\nsamples = 18\nvalue = [14, 4]"] ;
292 -> 294 ;
295 [label="gini = 0.0\nsamples = 9\nvalue = [9, 0]"] ;
294 -> 295 ;
296 [label="X[9] <= 0.5\ngini = 0.4938\nsamples = 9\nvalue = [5, 4]"] ;
294 -> 296 ;
297 [label="X[28] <= 0.5\ngini = 0.2778\nsamples = 6\nvalue = [5, 1]"] ;
296 -> 297 ;
298 [label="gini = 0.0\nsamples = 5\nvalue = [5, 0]"] ;
297 -> 298 ;
299 [label="gini = 0.0\nsamples = 1\nvalue = [0, 1]"] ;
297 -> 299 ;
300 [label="gini = 0.0\nsamples = 3\nvalue = [0, 3]"] ;
296 -> 300 ;
301 [label="X[28] <= 0.5\ngini = 0.2449\nsamples = 7\nvalue = [1, 6]"] ;
291 -> 301 ;
302 [label="gini = 0.0\nsamples = 6\nvalue = [0, 6]"] ;
301 -> 302 ;
303 [label="gini = 0.0\nsamples = 1\nvalue = [1, 0]"] ;
301 -> 303 ;
304 [label="X[61] <= 30.5\ngini = 0.1502\nsamples = 330\nvalue = [303, 27]"] ;
274 -> 304 ;
305 [label="X[59] <= 6465.5\ngini = 0.2622\nsamples = 116\nvalue = [98, 18]"] ;
304 -> 305 ;
306 [label="X[34] <= 0.5\ngini = 0.2152\nsamples = 106\nvalue = [93, 13]"] ;
305 -> 306 ;
307 [label="X[16] <= 0.5\ngini = 0.1908\nsamples = 103\nvalue = [92, 11]"] ;
306 -> 307 ;
308 [label="X[7] <= 0.5\ngini = 0.1769\nsamples = 102\nvalue = [92, 10]"] ;
307 -> 308 ;
309 [label="X[62] <= 1.5\ngini = 0.1392\nsamples = 93\nvalue = [86, 7]"] ;
308 -> 309 ;
310 [label="X[9] <= 0.5\ngini = 0.2061\nsamples = 60\nvalue = [53, 7]"] ;
309 -> 310 ;
311 [label="X[15] <= 0.5\ngini = 0.1499\nsamples = 49\nvalue = [45, 4]"] ;
310 -> 311 ;
312 [label="X[52] <= 0.5\ngini = 0.1195\nsamples = 47\nvalue = [44, 3]"] ;
311 -> 312 ;
313 [label="X[58] <= 33.0\ngini = 0.32\nsamples = 10\nvalue = [8, 2]"] ;
312 -> 313 ;
314 [label="X[21] <= 0.5\ngini = 0.1975\nsamples = 9\nvalue = [8, 1]"] ;
313 -> 314 ;
315 [label="gini = 0.0\nsamples = 7\nvalue = [7, 0]"] ;
314 -> 315 ;
316 [label="X[28] <= 0.5\ngini = 0.5\nsamples = 2\nvalue = [1, 1]"] ;
314 -> 316 ;
317 [label="gini = 0.0\nsamples = 1\nvalue = [0, 1]"] ;
316 -> 317 ;
318 [label="gini = 0.0\nsamples = 1\nvalue = [1, 0]"] ;
316 -> 318 ;
319 [label="gini = 0.0\nsamples = 1\nvalue = [0, 1]"] ;
313 -> 319 ;
320 [label="X[27] <= 0.5\ngini = 0.0526\nsamples = 37\nvalue = [36, 1]"] ;
312 -> 320 ;
321 [label="gini = 0.0\nsamples = 29\nvalue = [29, 0]"] ;
320 -> 321 ;
322 [label="X[61] <= 22.5\ngini = 0.2188\nsamples = 8\nvalue = [7, 1]"] ;
320 -> 322 ;
323 [label="gini = 0.0\nsamples = 1\nvalue = [0, 1]"] ;
322 -> 323 ;
324 [label="gini = 0.0\nsamples = 7\nvalue = [7, 0]"] ;
322 -> 324 ;
325 [label="X[48] <= 0.5\ngini = 0.5\nsamples = 2\nvalue = [1, 1]"] ;
311 -> 325 ;
326 [label="gini = 0.0\nsamples = 1\nvalue = [1, 0]"] ;
325 -> 326 ;
327 [label="gini = 0.0\nsamples = 1\nvalue = [0, 1]"] ;
325 -> 327 ;
328 [label="X[51] <= 0.5\ngini = 0.3967\nsamples = 11\nvalue = [8, 3]"] ;
310 -> 328 ;
329 [label="X[58] <= 25.5\ngini = 0.32\nsamples = 10\nvalue = [8, 2]"] ;
328 -> 329 ;
330 [label="X[21] <= 0.5\ngini = 0.1975\nsamples = 9\nvalue = [8, 1]"] ;
329 -> 330 ;
331 [label="gini = 0.0\nsamples = 7\nvalue = [7, 0]"] ;
330 -> 331 ;
332 [label="X[30] <= 0.5\ngini = 0.5\nsamples = 2\nvalue = [1, 1]"] ;
330 -> 332 ;
333 [label="gini = 0.0\nsamples = 1\nvalue = [1, 0]"] ;
332 -> 333 ;
334 [label="gini = 0.0\nsamples = 1\nvalue = [0, 1]"] ;
332 -> 334 ;
335 [label="gini = 0.0\nsamples = 1\nvalue = [0, 1]"] ;
329 -> 335 ;
336 [label="gini = 0.0\nsamples = 1\nvalue = [0, 1]"] ;
328 -> 336 ;
337 [label="gini = 0.0\nsamples = 33\nvalue = [33, 0]"] ;
309 -> 337 ;
338 [label="X[60] <= 3.5\ngini = 0.4444\nsamples = 9\nvalue = [6, 3]"] ;
308 -> 338 ;
339 [label="gini = 0.0\nsamples = 5\nvalue = [5, 0]"] ;
338 -> 339 ;
340 [label="X[58] <= 16.0\ngini = 0.375\nsamples = 4\nvalue = [1, 3]"] ;
338 -> 340 ;
341 [label="gini = 0.0\nsamples = 1\nvalue = [1, 0]"] ;
340 -> 341 ;
342 [label="gini = 0.0\nsamples = 3\nvalue = [0, 3]"] ;
340 -> 342 ;
343 [label="gini = 0.0\nsamples = 1\nvalue = [0, 1]"] ;
307 -> 343 ;
344 [label="X[26] <= 0.5\ngini = 0.4444\nsamples = 3\nvalue = [1, 2]"] ;
306 -> 344 ;
345 [label="gini = 0.0\nsamples = 2\nvalue = [0, 2]"] ;
344 -> 345 ;
346 [label="gini = 0.0\nsamples = 1\nvalue = [1, 0]"] ;
344 -> 346 ;
347 [label="X[27] <= 0.5\ngini = 0.5\nsamples = 10\nvalue = [5, 5]"] ;
305 -> 347 ;
348 [label="X[26] <= 0.5\ngini = 0.4082\nsamples = 7\nvalue = [2, 5]"] ;
347 -> 348 ;
349 [label="gini = 0.0\nsamples = 5\nvalue = [0, 5]"] ;
348 -> 349 ;
350 [label="gini = 0.0\nsamples = 2\nvalue = [2, 0]"] ;
348 -> 350 ;
351 [label="gini = 0.0\nsamples = 3\nvalue = [3, 0]"] ;
347 -> 351 ;
352 [label="X[8] <= 0.5\ngini = 0.0806\nsamples = 214\nvalue = [205, 9]"] ;
304 -> 352 ;
353 [label="X[62] <= 1.5\ngini = 0.1443\nsamples = 115\nvalue = [106, 9]"] ;
352 -> 353 ;
354 [label="X[12] <= 0.5\ngini = 0.0651\nsamples = 89\nvalue = [86, 3]"] ;
353 -> 354 ;
355 [label="X[16] <= 0.5\ngini = 0.0247\nsamples = 80\nvalue = [79, 1]"] ;
354 -> 355 ;
356 [label="gini = 0.0\nsamples = 75\nvalue = [75, 0]"] ;
355 -> 356 ;
357 [label="X[53] <= 0.5\ngini = 0.32\nsamples = 5\nvalue = [4, 1]"] ;
355 -> 357 ;
358 [label="gini = 0.0\nsamples = 4\nvalue = [4, 0]"] ;
357 -> 358 ;
359 [label="gini = 0.0\nsamples = 1\nvalue = [0, 1]"] ;
357 -> 359 ;
360 [label="X[25] <= 0.5\ngini = 0.3457\nsamples = 9\nvalue = [7, 2]"] ;
354 -> 360 ;
361 [label="gini = 0.0\nsamples = 7\nvalue = [7, 0]"] ;
360 -> 361 ;
362 [label="gini = 0.0\nsamples = 2\nvalue = [0, 2]"] ;
360 -> 362 ;
363 [label="X[22] <= 0.5\ngini = 0.355\nsamples = 26\nvalue = [20, 6]"] ;
353 -> 363 ;
364 [label="X[42] <= 0.5\ngini = 0.2778\nsamples = 24\nvalue = [20, 4]"] ;
363 -> 364 ;
365 [label="gini = 0.0\nsamples = 13\nvalue = [13, 0]"] ;
364 -> 365 ;
366 [label="X[55] <= 0.5\ngini = 0.4628\nsamples = 11\nvalue = [7, 4]"] ;
364 -> 366 ;
367 [label="gini = 0.0\nsamples = 3\nvalue = [0, 3]"] ;
366 -> 367 ;
368 [label="X[36] <= 0.5\ngini = 0.2188\nsamples = 8\nvalue = [7, 1]"] ;
366 -> 368 ;
369 [label="gini = 0.0\nsamples = 7\nvalue = [7, 0]"] ;
368 -> 369 ;
370 [label="gini = 0.0\nsamples = 1\nvalue = [0, 1]"] ;
368 -> 370 ;
371 [label="gini = 0.0\nsamples = 2\nvalue = [0, 2]"] ;
363 -> 371 ;
372 [label="gini = 0.0\nsamples = 99\nvalue = [99, 0]"] ;
352 -> 372 ;
}